const model = {
  "neuronCounts": [
    5,
    10,
    8
  ],
  "classes": [
    "car",
    "fish",
    "house",
    "tree",
    "bicycle",
    "guitar",
    "pencil",
    "clock"
  ],
  "network": {
    "levels": [
      {
        "weights": [
          [
            -0.9330651317105783,
            1.6658281150149112,
            1.265867303470375,
            -2.248520453922422,
            0.4845250534536151,
            -0.11333905062977462,
            -0.2491040735063738,
            0.9893329755238003,
            0.1229174279073672,
            -1.3902704688247798
          ],
          [
            0.6267264796470254,
            -0.8463602232275792,
            -0.6852376764395757,
            1.9924721332492785,
            -2.587683686371503,
            1.1850815757419917,
            -1.7802544636914348,
            -0.7258297459157235,
            -0.6719262416284629,
            -0.9628021313930275
          ],
          [
            2.9980892798398147,
            4.113259460811201,
            2.115492848919278,
            0.9025574258605293,
            2.763399079597496,
            3.2780280411070937,
            -5.015291666595369,
            -6.083900281612178,
            6.270613819251009,
            6.684491814982546
          ],
          [
            -1.6972687888714957,
            -1.7743143139260291,
            1.5996094361232998,
            1.3603878556909899,
            1.467426479930727,
            1.0601409594395927,
            1.2508841095123584,
            2.067842245055471,
            0.06843202074248321,
            -0.18887134019254775
          ],
          [
            0.35659460170180185,
            1.4836611388360237,
            1.2255447881766397,
            0.05602313177489471,
            -0.17369920471486466,
            1.5595657827988867,
            0.7979825114186981,
            0.6778442967979386,
            -5.241846094840815,
            -1.1717106456904656
          ]
        ],
        "biases": [
          0.559224767315221,
          1.1379657665796146,
          -1.6378956359032326,
          -1.2845678472725823,
          -0.5786764071311253,
          -0.4288788715833496,
          -0.2542953322091806,
          -1.8045807212267189,
          0.4513129968073557,
          0.20480954156236358
        ],
        "inputs": [
          0,
          0,
          0,
          0,
          0
        ],
        "outputs": [
          0,
          0,
          0,
          0,
          0,
          0,
          0,
          0,
          0,
          0
        ]
      },
      {
        "weights": [
          [
            -0.8135879521043405,
            -1.1662690343104627,
            -0.36424179274147966,
            -1.0466888473240497,
            -0.7517319946881293,
            1.2901096884027246,
            1.6494254448170238,
            0.17167060637190765
          ],
          [
            1.0843734083609664,
            1.7191056643544873,
            -0.6615590454445398,
            -1.8378859291503025,
            1.245021957887985,
            1.8329704860295557,
            0.20006014932870964,
            -3.098808442715218
          ],
          [
            4.826288430949542,
            -1.6682584267110692,
            -2.912800311339908,
            -0.23166877330120111,
            -2.0679743923784986,
            -0.5549247137973805,
            0.14562307675070443,
            5.251238864045208
          ],
          [
            -1.4164477954351866,
            -1.4396135601801963,
            -0.5987769225346374,
            2.8619562841880852,
            -2.7440001885406544,
            -0.40568889056841395,
            -1.348992628185617,
            5.581315595154616
          ],
          [
            3.2941427115546658,
            0.920477073660808,
            -1.2013847115497924,
            -3.2518245358744413,
            0.6484444812558374,
            0.8269292172817511,
            -2.879485853708557,
            2.6565743404865874
          ],
          [
            -0.32756361984681714,
            -0.5586870921459949,
            -0.2557110894599926,
            0.2495341606497692,
            0.19242110904828455,
            -1.6476319389971417,
            -0.12039018540898405,
            3.68665225607955
          ],
          [
            0.2833854863401632,
            1.039724952502924,
            1.977263071026217,
            -1.1609806548630919,
            3.7901111260376887,
            -1.4374703022704074,
            -2.3440939195796404,
            -0.18936863511622493
          ],
          [
            1.3291437613427137,
            -0.09885013769230831,
            0.2145820290287146,
            2.283360771535872,
            1.2365404310431092,
            -5.376296297528736,
            -0.6455451198103966,
            2.18525573849719
          ],
          [
            1.4904525358949499,
            1.0278172204473839,
            -2.3582709092253378,
            2.083884439765078,
            -1.5536549512587583,
            -2.009250751127053,
            1.2555911199355358,
            1.5774833983332408
          ],
          [
            0.11536974951686917,
            0.8658206190117728,
            -1.2766480888435823,
            -0.9402647500348138,
            -0.7397604598979755,
            -2.463052025648756,
            3.1499511493344823,
            1.4296876622738632
          ]
        ],
        "biases": [
          -0.7698883086562351,
          0.9532927573188625,
          0.1294505445551192,
          -0.26789282555872024,
          -0.9873849977502819,
          -1.9686837469800353,
          -0.5041112748943647,
          0.9572177932021024
        ],
        "inputs": [
          0,
          0,
          0,
          0,
          0,
          0,
          0,
          0,
          0,
          0
        ],
        "outputs": [
          0,
          0,
          0,
          0,
          0,
          0,
          0,
          0
        ]
      }
    ]
  }
};