const model = {"neuronCounts":[5,8],"classes":["car","fish","house","tree","bicycle","guitar","pencil","clock"],"network":{"levels":[{"inputs":[0.472,0.31002331002331,0.04443440204797268,0.8045175327239984,0.16294104970319143],"outputs":[-0.10015842794049717,0.4585339541817014,0.46441164941519597,0.2595081002565087,0.3031372036106885,-0.6506556743091596,0.2667131829818941,0.4397046950922859],"biases":[0.3096397945865572,0.577458299613586,-0.42301007400020607,-0.038419251192934656,-0.027917311865389483,-0.04243529037424043,0.746804916689153,-0.05286625377709342],"weights":[[0.17173612307167163,0.4247020135238433,0.9720859227620613,0.8364395211746598,0.760065546451707,-0.48620050063784737,0.4810881885710083,-0.5343220757375615],[-0.9666758754295057,-0.04490678981250218,0.8140853850064462,-0.3913624588601423,0.7012940608563634,0.9525111744023564,0.7066733784585035,0.9455797323879462],[0.993587909458332,-0.62573931939282,-0.6523053680610249,0.34160701266684423,-0.08763981988541092,0.4520624640161066,0.4660257014466733,-0.9341132546926598],[-0.3399834859175881,-0.18356342186868835,0.3849896320493378,-0.11530717371225441,-0.42848884186995706,-0.7408127549868708,-0.9805618725129368,0.4964415103696984],[0.23448709021757663,-0.7976946305207391,-0.6415472831320619,0.6262812355308096,0.6352425036307361,-0.6022097584334256,-0.9701602752727165,0.5752391746298824]]}]}}