const model = {"neuronCounts":[5,10,8],"classes":["car","fish","house","tree","bicycle","guitar","pencil","clock"],"network":{"levels":[{"inputs":[0.472,0.31002331002331,0.04443440204797268,0.8045175327239984,0.16294104970319143],"outputs":[0.25914604045140865,0.11869743671801691,-0.2848284857005384,-0.22530149608398164,0.6206918868436307,-0.6019080579317871,-1.1964496580650836,0.05854302430229735,-0.5000059203674112,0.49858570983487416],"biases":[0.199990770947863,-0.3900266943588462,-0.33215081415744363,0.6145829761122452,-0.0879140054684533,-0.37591172198928957,-0.5042016700282996,-0.1842245406116403,-0.08319970754165906,0.08904685670517232],"weights":[[0.908119119208429,0.7466206123846573,-0.27666104656884905,-0.49158888861436845,-0.3003875575626127,-0.34596769962758245,-0.2518901024244582,-0.6291045816151053,0.2500786341014858,-0.10846281293664317],[-0.8262181839622436,0.13332866616570316,-0.07629085977248184,-0.822344316570133,-0.3402749999054868,0.5988508597208959,-0.8482602725470909,0.5993023100256747,0.24637252121659126,0.733257188373102],[0.2705988594703861,0.6116968851622198,-0.8462663895795388,0.5025184431122982,0.6919653522098641,-0.27099459845037277,0.9588056797810021,0.607177356598291,-0.6047320313886138,0.9865820420962628],[-0.20791252544201155,0.08664490304430172,0.48878772640044277,-0.6672110267701283,0.9522360394870515,-0.33289324669154885,-0.6397424911933385,0.530583076721808,-0.5759730677228414,0.16244539749412246],[0.25724220497250005,0.11106150789799374,-0.9455976112051814,0.991433730490423,0.9760851905512666,0.19333758452684258,0.9924122349201814,-0.6133243229462368,-0.7424354715678385,0.3613461850103299]]},{"inputs":[0.25914604045140865,0.11869743671801691,-0.2848284857005384,-0.22530149608398164,0.6206918868436307,-0.6019080579317871,-1.1964496580650836,0.05854302430229735,-0.5000059203674112,0.49858570983487416],"outputs":[0.10546464048649984,1.1182797906615134,-1.4737484685246172,-1.2033179167884283,0.16008787624426668,1.0582524528909873,0.7163987481588534,0.49630876226518567],"biases":[0.5275468937944767,0.6837911670497778,-0.9267532551858144,0.5770464159817466,0.6736984462738507,0.5746185392290273,0.4168929261301346,0.8662403991381722],"weights":[[0.11541234047761417,0.7750913860146076,-0.7828267903550028,0.436127497964204,0.03179649269048923,-0.8319022299008729,0.20489598408884646,-0.3727412522258917],[-0.3950143987303032,0.10478581518590735,-0.2919050206144336,-0.2529684227571787,0.018326408596857746,0.8911748377880215,-0.8232468601004044,0.3516565054259537],[0.4626853472067256,-0.15471017916506025,-0.7078790791004148,-0.3163053702258831,0.3140260827103849,0.5772789030650936,-0.9906529477875701,-0.879360728288002],[-0.2910801572771966,0.22577256818042102,-0.15105684572439237,0.9951491497240976,0.7516897804896479,-0.271534142637337,0.9379456686138563,0.01169303461118254],[0.7234353180102895,0.6805104119574539,-0.9618837690084705,-0.7784576866502078,-0.9358749235441626,0.9044015181037857,0.7430918560565143,-0.6120624267744876],[0.9194116844643796,0.23526700780303855,-0.7431732905753576,0.8921173335482111,0.006796436564540542,0.5333518298965032,-0.53555262097036,0.03737604245223647],[0.5795401237764835,-0.26081179037468205,0.6325827280955427,0.45535402388687984,-0.520893730331903,-0.4300621003724978,0.34391471151952047,-0.32898576456720585],[-0.8319244567331068,-0.03297990965158748,0.5330351986864308,-0.7224989864322451,-0.06497744483889845,-0.23957994327718835,0.7984828807494311,-0.42634348753179285],[-0.08156922940440214,0.42780650605327697,-0.3853639234967803,-0.1446519893859346,0.44529667048125443,0.22655517746478004,0.9964732784310995,0.20874475854988805],[0.9362105307001207,-0.2988450035232093,0.2758548382177599,-0.3897202714084034,-0.15446245539182568,0.13862698115417516,0.7073378926666973,-0.8519963382081217]]}]}}