const model = {"neuronCounts":[5,10,8],"classes":["car","fish","house","tree","bicycle","guitar","pencil","clock"],"network":{"levels":[{"weights":[[4.580111130752986e-266,2.1155521407883735,-3.242671301549814e-13,-1.2161472302255636,-0.013332912627373104,-2.1196249399101382e-194,1.3427646339116517,5.31912821610963e-246,-1.1222017931517723,-0.08173594627073849],[-1.1934517215740879e-266,0.2436229574708134,-6.6786553453549815e-15,2.6534048222265025,-0.05745815757821584,2.7651194249696457e-242,-1.9325377437220819,3.576964864569519e-273,1.4615984319307957,-1.0022610815387087],[3.160192272389856e-212,2.033411310560673,-1.2704008333555648e-137,-2.53628692123308,4.401961057010834,-1.3421932687817224e-195,-4.001669646244866,2.8761685871128716e-185,0.5140527534036762,2.6862009511722884],[-1.524311598456181e-194,-2.068073312302676,0.022094311195066375,1.3597583645265676,0.46608012110721503,1.3156644598150519e-238,2.288860738353614,9.281622569227758e-206,-1.4239283123416506,-1.1635965868848872],[9.324774008583635e-182,0.9816101661071673,-2.6143206430613082e-17,1.178779859557144,-3.415399863116875,-2.8254043245808394e-274,2.0083574445312307,1.1118829674735224e-232,-0.5813868844100757,0.279217049513457]],"biases":[-0.6079580527462108,1.4730872248618712,-0.4124466454493085,-0.32530384964760695,0.15514324099753027,-0.5649566583082877,0.060525837692887836,-0.44685693422048145,1.4083503906994759,1.7819997597458852],"inputs":[0.472,0.31002331002331,0.04443440204797268,0.8045175327239984,0.16294104970319143],"outputs":[-0.6079580527462108,1.133653398847831,-0.3946713847195726,1.0966146829522692,0.14509603567638804,-0.5649566583082877,2.0860396630812916,-0.44685693422048145,0.11433527299211321,0.6614178921220151]},{"weights":[[-8.644749319379629e-201,2.5831274739526132e-267,4.0022846927660594e-241,2.2346348249374327e-267,8.217772243712641e-193,2.344063559126229e-278,-6.166471964922249e-248,-3.864539412313517e-282],[0.9938715184877053,0.029347796895287572,-0.5978172214977496,-0.6284510264575557,-0.3719917608557836,2.3316591727217864,1.1803940066167207,-3.6505635436519364],[-5.665947878981814e-60,1.660333318540963e-91,-1.0262184592213152e-90,8.335466852726426e-106,1.2779219266494867e-78,2.4831140778140284e-89,-1.9367352025215614e-86,-8.916279913387486e-17],[-2.119634825837511,-1.4144734343138892,0.8626739431427777,2.335730457087296,-0.7385859629822594,-0.6467797999427908,-1.030775191784493,2.207473048373514],[1.1583326612412308,2.3074759727363894,-4.790020699297829,4.12891595896562,-3.0330281176537364,-5.848843027422517,-0.6076493116348782,2.6387929779551778],[-5.709129504332717e-245,2.1856864757317318e-280,-5.235498210374824e-203,9.958355038709788e-253,2.7351861614967995e-199,-1.0962958125430148e-257,4.9922176007627116e-188,3.5834178763269207e-196],[1.4945364879740792,0.8591655024574802,0.39407062203788956,-0.7738731592604049,1.8062125835556417,-1.8267315943519906,-3.350436118125702,1.2475077683849565],[-7.345343718312809e-227,1.2297813811719793e-197,2.4532689658056908e-236,2.8163794782912545e-204,-3.849344313067975e-189,-1.1358327144747722e-189,1.5484792117096854e-190,6.633025950592516e-227],[-5.179411500322861,0.05741270214491678,0.5653038122371367,0.17801644125094204,-2.1006980020255686,2.2418148234262394,2.1670144506433977,-2.543735116396761],[-0.3445655011987545,1.0491792048299913,-0.5254101439685612,-4.410755933673919,0.15551192110848897,1.4340726015581324,2.1576166569155166,-3.017677758582941]],"biases":[-0.059264128573883516,-0.4116920822129552,-0.21771072941993622,-0.5419933722006426,-0.6810159017449148,0.065153628856875,0.29615284183805984,-0.485260667741734],"inputs":[-0.6079580527462108,1.133653398847831,-0.3946713847195726,1.0966146829522692,0.14509603567638804,-0.5649566583082877,2.0860396630812916,-0.44685693422048145,0.11433527299211321,0.6614178921220151],"outputs":[1.2086596775153455,0.8980149372014472,-0.10525491268732148,-2.605282800725024,1.277755383399617,-1.455259959374294,-4.89851037792856,-1.5045427058581629]}]}}