const model = {"neuronCounts":[5,8],"classes":["car","fish","house","tree","bicycle","guitar","pencil","clock"],"network":{"levels":[{"inputs":[0.472,0.31002331002331,0.04443440204797268,0.8045175327239984,0.16294104970319143],"outputs":[1.095195076528968,0.028573561777616607,-0.7729328425866502,-0.21758939560534496,0.646864025777119,0.8546742636415718,0.6000617380450604,1.1241466884509406],"biases":[0.5678330232170192,-0.5891259886931617,-0.15688309835066727,0.8950556944392476,0.07857562923491646,0.45457953465118184,0.8956756019180445,0.9829777976002143],"weights":[[0.3956653720852694,0.16573258624083387,0.33355344565056466,-0.6026303643801989,0.39915160414161344,-0.8827699285056725,-0.44117999489678983,-0.8306008901819553],[-0.32537650647443694,-0.15447206813159653,0.004897529958555413,0.24676619753983609,0.46058717906625724,0.5621335232331566,0.8278252081415056,-0.15377062341949976],[0.05877626431542904,-0.08386293562995606,-0.4950733907495586,-0.485599171175894,-0.12311519561876949,-0.771527010173902,0.6344489419968973,-0.4106818368686036],[0.7272732921860516,0.8205860847999764,-0.7714759918167138,-0.9147889626875179,0.32224267589940325,0.9853230396122394,-0.6221789349930784,0.7472043204157255],[-0.8974626335272706,-0.42399248945955703,-0.812202128885303,-0.903184088096141,-0.10238828646357989,-0.7115437142325107,0.7876497980661847,-0.012308658735995959]]}]}}